{
    "type": "svm_sgd",
    "dim": 129,
    "weights": [
        [
            -1.6391985401732996,
            -0.4751384913359518,
            -0.1436119802614458,
            -0.5214526035885809,
            1.1003870413264145,
            0.8608437381631682,
            -1.8979160207584675,
            0.36411520057775154,
            -0.06543783417705124,
            -0.4953315079098717,
            -0.15613987804814428,
            2.3020407447435627,
            1.1431678523338895,
            -1.8032635030971718,
            0.21639429779815528,
            0.8784916283453479,
            -0.01686876252656709,
            -1.5084245494036033,
            0.8843601829680036,
            -0.05716965110448031,
            0.7963954263465658,
            -0.3525558092961737,
            -1.207802316904754,
            0.15427852908462722,
            -0.09302489711512801,
            0.09945856352201639,
            0.22146246756827498,
            0.3950315374521809,
            -0.4188056404891725,
            0.5423533883566042,
            0.1860545606622974,
            0.25730047990931854,
            0.047180382338697896,
            0.9375943348663572,
            0.8655069473543858,
            0.5417132995956208,
            -1.671140100155973,
            0.24272431029320102,
            0.8713121722680531,
            0.32866110574676466,
            -0.1703656783921862,
            0.3955779079619791,
            -0.02028695180064071,
            0.13681934324025494,
            -0.05412084857083974,
            0.4232490804161765,
            -1.439996011768413,
            -0.48705545700191666,
            -0.25903304917735515,
            -0.531008716901731,
            -1.5073268098584096,
            1.5282505103129302,
            -1.0060493068269025,
            0.05906171696893002,
            -0.43113964995554066,
            0.6876311258434971,
            -0.33806518657279455,
            -0.9929747885931448,
            -0.8917679378325409,
            0.03801816058643997,
            0.8698727127573496,
            0.1854493694714472,
            0.5676366896246255,
            0.061462723516818106,
            0.12228478333595148,
            -0.704709798905123,
            0.29095217513217175,
            -0.2520638756113707,
            -0.12796154217091465,
            -1.5249884365633979,
            0.9907757538823648,
            0.49055639306051146,
            -0.7124444923840768,
            -0.734485057812474,
            0.37133648174776546,
            0.6725583408834984,
            0.01512619756528442,
            0.2832614864712551,
            -0.012306297938301883,
            0.5118780922209042,
            1.0503037317211035,
            -0.586575966866193,
            -0.9092326293807714,
            -0.519101863622625,
            0.3027474254928859,
            0.6149083057481362,
            -0.07595860419734857,
            0.10651313081229105,
            -0.515756226734953,
            -0.09363979031039506,
            1.1729746202237326,
            1.3031833874134917,
            -0.5118183691201478,
            -0.26829741204030794,
            0.5844953751678599,
            -0.5606576365300485,
            -1.444510682847849,
            -0.028502259069250302,
            -0.05297051863246421,
            0.5042091109265442,
            1.6308460662783646,
            -1.5622404979171984,
            -0.28682732033017094,
            0.30977167839904857,
            -1.2089231943288063,
            1.7063372928891807,
            -0.018357555993288813,
            0.8309325614650166,
            1.633523760939431,
            -0.5554877069050338,
            0.050655314828950394,
            0.2361779214699509,
            -0.13853812571562965,
            0.3098794591263629,
            1.3124635018644932,
            -1.4333920841181496,
            0.028217100588761423,
            -0.2193786013944389,
            -0.1747408898798554,
            0.8889394218661435,
            0.018411966389083795,
            -0.016736720463637448,
            -0.08526403965536972,
            -0.6011533985974833,
            0.24505833353837078,
            -0.17247070397094788,
            1.3179879263363805,
            -0.2752803197569815,
            2.0099540581929496
        ],
        [
            1.625602247591287,
            0.5811802490067438,
            0.13822633879061041,
            0.5456441224459646,
            -0.9778401347327467,
            -0.9650177479969854,
            1.8086713041448383,
            -0.3080057227536028,
            0.21723213561618715,
            0.5389104780191429,
            0.1335222551146388,
            -2.1329435155508216,
            -1.3344609878553588,
            1.9131348649350755,
            -0.32947281538627077,
            -0.8940406916547903,
            -0.033393216890630247,
            1.45423112698702,
            -0.7970415028066178,
            0.08043760258749781,
            -1.0521230594382958,
            0.3121474081579822,
            1.0269935558861614,
            -0.14547241508228456,
            0.12396631458338006,
            -0.1252201972311716,
            -0.2818019889588206,
            -0.18828579631054784,
            0.11740755831690088,
            -0.6926595867117535,
            -0.19956943961670348,
            -0.2550674130567637,
            -0.01890033802476599,
            -0.9003960096487823,
            -0.7656877733266907,
            -0.5541663743321514,
            1.8350270669300404,
            -0.13648702446867822,
            -0.7307333323379591,
            -0.2593946302047018,
            0.37269381650712696,
            -0.39063333902937153,
            -0.22059173215625477,
            -0.05603751018021902,
            0.07451684541149033,
            -0.25372486796539,
            1.5288169865324872,
            0.4309724110307738,
            0.26701821581764923,
            0.5172043334865337,
            1.4806347916791438,
            -1.7171887712858216,
            0.9694344626567436,
            0.036667678509596874,
            0.46857635591944075,
            -0.6071343540178376,
            0.235336982354,
            1.1798637496386342,
            0.8558644535949969,
            -0.07535413330365483,
            -0.7148655343961424,
            -0.17824010039117322,
            -0.366453278252267,
            0.014649050330538382,
            -0.10959161714398688,
            0.5976496908057574,
            -0.2755988935924188,
            0.29377120929672074,
            -0.05831826414439664,
            1.6988276703759948,
            -1.1913400822959483,
            -0.4231589362786791,
            0.8071530163653349,
            0.7062705747554736,
            -0.4467468666548581,
            -0.4662111764556472,
            -0.04854074266406319,
            -0.21927958235691059,
            0.03682730101390166,
            -0.4881781864249708,
            -0.9652768480615852,
            0.4709577138221991,
            0.8674645004213106,
            0.5636851248027207,
            -0.3193692963018478,
            -0.535967597709169,
            0.1108351794740642,
            -0.11457505773504248,
            0.3960782165445848,
            0.08300682615109252,
            -1.2289621429973476,
            -1.2099417888258324,
            0.4745099732224171,
            0.4099110709937703,
            -0.576761534901735,
            0.5268592125434407,
            1.7002012414201348,
            0.12266816743371388,
            0.05548746858584873,
            -0.5691029383093053,
            -1.67057965750922,
            1.7409403450106185,
            0.21687486177650236,
            -0.43772091065835367,
            1.1296523096776447,
            -1.5808034997162044,
            0.02782706495078876,
            -0.7555997727154834,
            -1.3970937626811823,
            0.4807339140302627,
            0.11282995680885755,
            -0.22539199954894712,
            0.04587128311557929,
            -0.21714023293683338,
            -1.440916498675578,
            1.5788607710113032,
            -0.06741558641198281,
            0.30701032655898436,
            -0.05125995623899584,
            -1.050025595934846,
            0.03488594951314392,
            0.014881951471252815,
            0.07761289083809178,
            0.6993208048864611,
            -0.191407343209411,
            0.1640114348877428,
            -1.1721780212132713,
            0.2559049105060836,
            -1.9142419601837621
        ],
        [
            0.06070613552141836,
            -0.006467061370343996,
            -0.06894352179427356,
            0.05991857895041235,
            -0.054079195472503706,
            0.20776505370023476,
            0.18884989032039576,
            -0.148252071855463,
            -0.10782524129584897,
            -0.01239288657746645,
            0.042495627944806116,
            -0.13498800455670282,
            0.10734969066034926,
            -0.02358224483897473,
            0.047568405482423755,
            -0.032347961464736265,
            -0.011833324699297217,
            0.044145092390639344,
            -0.1042329634303664,
            -0.047645289663320295,
            0.24243271495659663,
            0.0752497232257373,
            0.08611852714546556,
            -0.09234387127443532,
            -0.10056429342005184,
            -0.014331783037825332,
            -0.07891514611071937,
            -0.1161743585042637,
            0.20701096325508944,
            0.11883606514672154,
            0.05509078632899465,
            0.04024052854479582,
            0.053010714977397705,
            0.027757393345644605,
            0.031431771668241376,
            0.03117078190825987,
            -0.10811211170608426,
            0.033283402088616076,
            -0.1705384953279309,
            -0.06374073544983198,
            0.012870463362037107,
            0.006592951889315025,
            0.1284800693284812,
            0.013582238051689543,
            0.08294013175388218,
            -0.18773125100779592,
            0.020992158923661585,
            0.014227283394864948,
            0.003587923446735027,
            0.01563723731532189,
            0.1401496562337732,
            0.10802754430823114,
            0.0255385854365188,
            0.03387831810541218,
            0.014104271323578424,
            -0.06980039467579247,
            0.023826111696276086,
            -0.10631185693235483,
            0.009609789135588902,
            0.05772623103758336,
            -0.047041108892029844,
            -0.08843394922972744,
            -0.17261420677294356,
            -0.08311355112656783,
            -0.04203663491802516,
            0.0416638357812148,
            0.049530557269829044,
            -0.08694774771444445,
            0.058261138124394464,
            -0.069446030339354,
            0.11127196195919858,
            -0.08824682112899668,
            -0.009430986326946115,
            -0.027065356975077087,
            0.0025431504516356075,
            -0.21835024457429578,
            0.015156244916034492,
            0.003072718089939613,
            -0.0006653701620283303,
            -0.014745970773028413,
            -0.09628746287169228,
            0.06160273419491808,
            -0.034875488768552905,
            -0.0960913133952012,
            0.0908726624128171,
            -0.022323800178578875,
            -0.031153464763040508,
            -0.09101466095715917,
            0.04992528242959199,
            0.06636687056038974,
            -0.04424380654073037,
            -0.13833421621077177,
            0.07557152003249706,
            -0.177480767572167,
            -0.029499197829105695,
            -0.017987153825919734,
            -0.012125694897650495,
            -0.09517252439359358,
            -0.030766657381609372,
            0.17436111784667147,
            -0.08067529792941566,
            -0.10410916700197263,
            -0.0008455333831477803,
            0.14505424050117388,
            0.09494172685722925,
            -0.24729475740586784,
            -0.07263670941145998,
            -0.005466526854582377,
            -0.23035905913989008,
            -0.01090035680470325,
            -0.1485162854035987,
            -0.07643426583981143,
            -0.01582053427043537,
            -0.0261806908105843,
            -0.00347396607793986,
            0.006460428175006994,
            0.058386715614886786,
            0.06318285986368052,
            0.10863370842473187,
            -0.00712310018318545,
            0.03950228965813053,
            0.03432680526991381,
            -0.0011795906702124798,
            -0.043096944038852364,
            -0.01000101710518901,
            0.08876540675211088,
            -0.1159815789603925,
            -0.010024746683623742,
            -1.0528330781010695
        ]
    ],
    "bias_index": 128,
    "lambda": 0.0001,
    "epochs": 20,
    "eta0": 0.1,
    "goal_column": "280_classification",
    "classes": [
        "996_ckd",
        "998_notckd",
        "997_ckd\t"
    ],
    "num_classes": 3,
    "label_map": {
        "+1": "996_ckd",
        "-1": "998_notckd"
    },
    "feature_index": {
        "CAT::256_age::905_5": 0,
        "CAT::256_age::909_4": 1,
        "CAT::256_age::910_7": 2,
        "CAT::256_age::907_6": 3,
        "CAT::256_age::912_2": 4,
        "CAT::256_age::906_1": 5,
        "CAT::256_age::908_3": 6,
        "CAT::256_age::911_0": 7,
        "CAT::257_bp::914_2": 8,
        "CAT::257_bp::917_3": 9,
        "CAT::257_bp::915_1": 10,
        "CAT::257_bp::916_0": 11,
        "CAT::258_sg::918_2": 12,
        "CAT::259_al::923_0": 13,
        "CAT::259_al::922_3": 14,
        "CAT::259_al::924_n": 15,
        "CAT::259_al::921_2": 16,
        "CAT::259_al::919_1": 17,
        "CAT::259_al::920_4": 18,
        "CAT::259_al::925_5": 19,
        "CAT::260_su::926_0": 20,
        "CAT::260_su::928_4": 21,
        "CAT::260_su::930_n": 22,
        "CAT::260_su::929_1": 23,
        "CAT::260_su::931_2": 24,
        "CAT::260_su::927_3": 25,
        "CAT::260_su::932_5": 26,
        "CAT::261_rbc::934_normal": 27,
        "CAT::261_rbc::933_nan": 28,
        "CAT::261_rbc::935_abnormal": 29,
        "CAT::262_pc::936_normal": 30,
        "CAT::262_pc::937_abnormal": 31,
        "CAT::262_pc::938_nan": 32,
        "CAT::263_pcc::939_notpresent": 33,
        "CAT::263_pcc::940_present": 34,
        "CAT::263_pcc::941_nan": 35,
        "CAT::264_ba::942_notpresent": 36,
        "CAT::264_ba::943_present": 37,
        "CAT::264_ba::944_nan": 38,
        "CAT::265_bgr::945_2": 39,
        "CAT::265_bgr::947_3": 40,
        "CAT::265_bgr::948_1": 41,
        "CAT::265_bgr::946_0": 42,
        "CAT::266_bu::950_2": 43,
        "CAT::266_bu::949_3": 44,
        "CAT::266_bu::951_0": 45,
        "CAT::267_sc::953_3": 46,
        "CAT::267_sc::954_0": 47,
        "CAT::268_sod::957_2": 48,
        "CAT::268_sod::955_0": 49,
        "CAT::268_sod::958_3": 50,
        "CAT::268_sod::956_1": 51,
        "CAT::269_pot::961_2": 52,
        "CAT::269_pot::959_0": 53,
        "CAT::269_pot::962_3": 54,
        "CAT::269_pot::960_1": 55,
        "CAT::270_hemo::963_2": 56,
        "CAT::270_hemo::964_1": 57,
        "CAT::270_hemo::965_0": 58,
        "CAT::270_hemo::966_3": 59,
        "CAT::271_pcv::967_2": 60,
        "CAT::271_pcv::968_1": 61,
        "CAT::271_pcv::969_0": 62,
        "CAT::272_wc::970_2": 63,
        "CAT::272_wc::971_0": 64,
        "CAT::272_wc::973_1": 65,
        "CAT::272_wc::972_3": 66,
        "CAT::273_rc::974_2": 67,
        "CAT::273_rc::975_0": 68,
        "CAT::273_rc::976_1": 69,
        "CAT::273_rc::977_3": 70,
        "CAT::274_htn::979_no": 71,
        "CAT::274_htn::978_yes": 72,
        "CAT::274_htn::980_nan": 73,
        "CAT::275_dm::982_no": 74,
        "CAT::275_dm::981_yes": 75,
        "CAT::275_dm::983_nan": 76,
        "CAT::276_cad::984_no": 77,
        "CAT::276_cad::985_yes": 78,
        "CAT::276_cad::986_nan": 79,
        "CAT::277_appet::987_good": 80,
        "CAT::277_appet::989_nan": 81,
        "CAT::277_appet::988_poor": 82,
        "CAT::278_pe::990_no": 83,
        "CAT::278_pe::992_nan": 84,
        "CAT::278_pe::991_yes": 85,
        "CAT::279_ane::993_no": 86,
        "CAT::279_ane::995_nan": 87,
        "CAT::279_ane::994_yes": 88
    },
    "numeric_minmax": [],
    "kernel": "sigmoid",
    "kernel_meta": {
        "type": "sigmoid",
        "D": 128,
        "scale": 1.0,
        "coef0": 0.0,
        "seed": 3001299647
    }
}