{
    "type": "svm_sgd",
    "dim": 129,
    "weights": [
        [
            0.5184759538314845,
            0.5971593185594014,
            -0.8378617999191578,
            0.5271168158168397,
            -0.1959142659557261,
            -1.168868427027479,
            -0.8539094781851577,
            -1.0129652350645064,
            0.39941233045971664,
            -0.1278845339585478,
            -1.7048376161955854,
            -1.9260988736576115,
            0.3326671491551473,
            0.5240611587660322,
            -1.7033094096858103,
            -0.6986949213850334,
            -0.4709697523431521,
            0.10088172072513728,
            2.271525977799064,
            -0.4075727518950974,
            0.3522980674816738,
            -0.5417597772496995,
            0.636999424807838,
            -0.4870128088545428,
            1.003518721660917,
            0.06781685640736462,
            1.2525733499606349,
            -0.7998738438630043,
            2.4401320063520058,
            0.9504429204782339,
            0.5169625951977193,
            -0.2438951030975061,
            -0.3701710584030008,
            0.19622685071450083,
            -0.3186312277043257,
            1.29627292328057,
            1.6298360250096147,
            -1.6880101884563699,
            -0.27124152491855785,
            -0.6937784484288979,
            -0.7893194223065826,
            -1.9056488412847556,
            0.042424465286597234,
            -1.4638193939460027,
            1.244705040786902,
            1.0091856422474874,
            0.3634463536352077,
            0.848095651549781,
            0.4508971156476711,
            0.7814712824213104,
            -0.6157568612133254,
            1.8577448675283923,
            0.2522116007624612,
            -2.3093866736923663,
            -1.5167472050356094,
            -1.2189666931411007,
            -0.5617743016640311,
            0.2409278045753407,
            0.3301141090331889,
            -1.1366976658153203,
            -0.07883052020913127,
            0.45494471676410125,
            0.002936168760276456,
            0.3034953389063123,
            1.1365299221071135,
            -1.0343799183729043,
            1.4295477404020784,
            -1.526144142599726,
            -0.7727378494943127,
            2.456563004640316,
            -0.9793297666642988,
            -0.283494201965802,
            1.7319703271123896,
            0.2530887869129682,
            1.2237423313884048,
            0.8912422485262833,
            1.3234317465816328,
            -1.6382721222401557,
            1.0686748667133026,
            0.01739520970046101,
            0.0030123516641179003,
            -1.5874833923072207,
            -2.301987502738722,
            0.7177666907046276,
            0.1352188290165796,
            1.822979268970156,
            -0.04652283926463129,
            1.9353023981519328,
            0.34496376034473397,
            -0.5618267395990536,
            1.8962415648464663,
            -0.7280670621231354,
            1.4257764375351996,
            -0.9299402556654065,
            0.6665394044499694,
            2.753953751156471,
            -2.5341664295641055,
            -0.3170725446985985,
            0.2849861625911037,
            0.04156159209615427,
            0.019763076987579654,
            -0.5253023834736331,
            -1.2762916599141667,
            -1.5065101965659105,
            -2.053560451414588,
            -1.7190588587803495,
            -0.8311546457668696,
            -0.26029035168641723,
            -0.13067064032477863,
            1.738322471112321,
            1.3243176025818686,
            0.13282598825984335,
            -2.0722914560405545,
            0.5908100931916666,
            -0.3193726498078196,
            1.6660847950900228,
            0.4883725888029945,
            -2.0389563691830555,
            -0.5893999413282008,
            -0.6326037747741536,
            2.928753969470838,
            2.1165554126435664,
            0.8291772653800582,
            -0.04460045476364527,
            0.8293017939887433,
            -0.46161848037718173,
            0.5818951460430676,
            1.8319926074817316,
            -0.932045416031185
        ],
        [
            -0.8305255405724321,
            0.7414445420917699,
            0.13564842324968426,
            0.3119638566596227,
            -0.8729644923024465,
            1.0001583427716472,
            -0.023360711780610496,
            -0.3451700803580897,
            -0.22502406811822334,
            -0.16380820759454984,
            0.3399880223444574,
            -0.32173137215095954,
            -1.0682619926065933,
            1.6725224522488773,
            0.5292910523362715,
            1.0631349552542393,
            -0.06710996183299067,
            -0.7061080548993427,
            -0.994744097862643,
            1.0662794882082332,
            0.293221267794539,
            1.1978468836231106,
            -0.6218662202696454,
            -0.9447631100241527,
            -2.422791661189672,
            -1.0597436658335926,
            -1.433091933251556,
            0.8117267115168393,
            -0.2627045381336235,
            0.4014637754560111,
            -1.31976077959237,
            -0.7933135569802865,
            -0.8146748532338681,
            0.32057977583907066,
            -0.9536850649061963,
            -1.4936554654732261,
            -1.5075487970466932,
            2.2383600076243786,
            1.091230757920044,
            -0.3133813067283256,
            -0.3291266673837845,
            2.5687382918808894,
            -0.714368932241688,
            1.3454365282781304,
            -1.6080223190671352,
            -1.1353973438880038,
            -0.7325436815580638,
            0.269285857337294,
            0.21560784876181527,
            -2.4742635030981686,
            0.27922522680824513,
            -2.7840674462484056,
            -1.242769676273271,
            2.5434830902437557,
            0.03688349315928554,
            2.0040844842754897,
            -0.05680954674005114,
            -0.07023767765258733,
            0.5815300727273798,
            -0.3076004177728546,
            0.5285775286502841,
            -0.5487326002776123,
            -1.9966228689277625,
            0.9761986346718546,
            0.005993265621935225,
            -1.760828392136991,
            -1.446529843445706,
            1.5561736676408675,
            0.4333722107627256,
            -2.336542351261745,
            -0.3738559095205758,
            0.2873734022252586,
            -0.5312352382479614,
            -1.4097983353395205,
            -2.0305941614891023,
            -1.3305995272360494,
            -0.39485365375402653,
            0.16367355862104346,
            0.7823475968023833,
            0.25551268541453687,
            -0.7032497087521474,
            2.8493628818194217,
            0.7346750834927619,
            -0.28353932189331116,
            0.4732440986681165,
            0.34525738421503976,
            -0.8693689675950136,
            0.48937027742764666,
            -0.7647012036574921,
            -0.7651666974930079,
            -0.9935566858580763,
            0.4348458104806077,
            0.1589858235875746,
            1.0914511897290597,
            0.5036750726746663,
            -2.927495467131273,
            3.428410749729056,
            0.4840196520383127,
            0.4688227019195012,
            0.9550784345275589,
            -2.008667591135119,
            -0.8931300383911577,
            0.32542208194623734,
            -0.3114403507068302,
            0.011171525494428333,
            1.319515528558115,
            -0.7575472472911479,
            -0.5653540055728823,
            0.4356888580940169,
            0.3966216079659194,
            -0.05743864630336878,
            -0.5235589812140803,
            4.3424253700312425,
            -0.5482659882418014,
            0.8012937651798155,
            -1.2735101979018648,
            -0.9766426360436207,
            0.4889879293167923,
            1.6907399127553033,
            2.0929349051409005,
            0.18348757222652734,
            0.3287162561423783,
            -1.2498841648842887,
            3.009061924480654,
            0.018714042857296196,
            0.3621925040320618,
            -0.18213647264945373,
            -0.9130280167497555,
            -1.1015082189459464
        ],
        [
            0.8027451246812376,
            -0.2940277196203702,
            0.367464877838182,
            -0.9522915885058365,
            0.8873453327665094,
            0.4370131722719212,
            0.8845311112186012,
            1.6583370566314592,
            0.05123980582808634,
            0.02315019066222928,
            1.0551756821814777,
            0.3123857122600647,
            0.511444901975636,
            -1.2689526236198085,
            1.4443851972110469,
            0.006037511749642571,
            -0.015945909124260027,
            1.1369263629974036,
            -2.366692220757138,
            -0.5432474179423382,
            -0.08871288286570844,
            -1.4906758754810663,
            -0.3380313614454816,
            1.4401124946935961,
            0.36436901047936326,
            1.1834453673831218,
            -0.5104323372400842,
            -0.10041207989189707,
            -1.0832621841827297,
            -0.8381468599757177,
            0.010244149792882214,
            1.2185538220073506,
            -0.12665389481921102,
            -0.015632083503750668,
            1.942282260704547,
            0.9959034659353203,
            -0.18753747535295992,
            0.4048836542429244,
            -0.34279204516927086,
            0.5607191296524805,
            -0.21656693897704962,
            -0.5293419816345963,
            0.9383751129246007,
            0.15127864654756162,
            0.9289775082914613,
            0.5079032814117733,
            -0.3785738126622899,
            -1.9406716315057821,
            -0.18893718928693765,
            0.5235738584271922,
            0.884009485052328,
            -0.0749441116878535,
            1.0984659863653943,
            -0.3136257581952016,
            -0.1028253644388388,
            -0.24168682963786764,
            0.18022201010009015,
            0.07772588737379438,
            0.47382139284333724,
            0.21983864451721188,
            0.45952206952844826,
            0.15089472121715355,
            2.1979904817979654,
            -0.6712111551258262,
            -1.5049671514320695,
            1.2429171591110575,
            0.4633819144481232,
            -0.2547663893516266,
            0.9217108208858114,
            -0.39020260240719545,
            0.727112472945633,
            0.5967696569736545,
            -1.6882391946781783,
            1.2556639969395207,
            0.4560251974728301,
            0.12604757191615196,
            0.3251534437819113,
            1.8088250223646187,
            -1.3393758884508729,
            -0.7191743573768006,
            0.788056806789493,
            -2.8709339036367636,
            -0.3642233431654737,
            -0.012143375498013028,
            -0.4771764412379443,
            -1.7464003924480584,
            -0.0693206356497189,
            -2.288344574880942,
            0.513936285176994,
            2.443889940507202,
            -0.35380617153295163,
            -0.3232987300459401,
            -2.016002778199047,
            -1.4985347822864046,
            -0.8234225777068116,
            -0.379508171610147,
            0.3363583036936107,
            -0.4416019901168668,
            0.021330866060397732,
            -0.7636087269654991,
            0.09511619451349863,
            1.6124050333869717,
            0.6789682373632172,
            1.512920930673862,
            2.6142679210990374,
            1.082805774474584,
            1.0274658379463788,
            1.1570471364322916,
            2.139676188279261,
            -1.7051236193927892,
            -1.9865591977915136,
            0.18860937408624698,
            -2.875068337942553,
            -0.6802371313884946,
            0.2911033456144357,
            -1.1315633600903439,
            1.0088786213805379,
            0.5688917084465892,
            -0.8679046425093206,
            -0.42846985465852255,
            -3.03327935763692,
            -2.0840105413238335,
            0.5873376692887295,
            -2.884220420158364,
            -0.4753600845155427,
            -0.0723563750678826,
            -1.1827293830115526,
            -0.7049381134682421,
            -0.5931198102016582
        ],
        [
            0.052244697631497194,
            0.10738662696942197,
            0.5944329333924807,
            0.19644857361317294,
            -0.29130416064488307,
            -0.13965731746500956,
            -0.2554054264006696,
            0.027338549872305825,
            0.08069333994178901,
            -0.4553482075132836,
            0.11691421500182186,
            1.535979362552886,
            0.7633776746966902,
            0.10230988341240506,
            -0.19888507270700886,
            -0.7810922317358729,
            0.525126913901376,
            -0.36791207200010934,
            0.3152064443170079,
            -0.48174930457779125,
            -0.16436328333094044,
            0.351233985898697,
            0.2954250867211212,
            0.11772841333014772,
            1.0464495062871697,
            0.05521073930800549,
            0.020754049622702435,
            -0.18770398099070434,
            -0.8540037380339639,
            -0.30702570000180995,
            0.8789286874989818,
            0.2477354505466719,
            0.5376923208024308,
            -0.8459180426116913,
            -0.00394976831889227,
            0.1670251846470118,
            0.24650545367473878,
            -0.4993852361422687,
            -0.7355135364988377,
            0.3062592458950055,
            0.6608139192315127,
            0.11307841222362676,
            0.25330136117791485,
            -0.3005257044934678,
            0.012147960388896874,
            0.026371061764659795,
            -0.057465734593580356,
            0.9656145286263103,
            -0.28605944537756395,
            0.49785329595045535,
            -0.5358320452093207,
            0.4301590537074861,
            0.21911533480764916,
            0.31200571634440855,
            0.7657799750892216,
            -0.31255016775333844,
            0.053455275914038605,
            0.006311752739094141,
            -0.43635977587542113,
            1.1478895016077577,
            -0.007542863725147057,
            -0.09936472391650959,
            0.15301601743182155,
            -0.9901912585406688,
            0.20363179018848884,
            1.146016322211289,
            0.2340780615915527,
            0.12837755721572208,
            -0.36495397999121787,
            -0.4928645625616675,
            0.561286070800526,
            0.22409596174730337,
            -0.09907501166636387,
            0.020308492448373256,
            -0.014371272742929498,
            -0.23129412033359692,
            -1.0849911832672083,
            -0.5460899522068865,
            -0.31946758846438583,
            -0.4922390945015484,
            -0.3036158215296559,
            0.5996121057873008,
            1.4224325548269097,
            -0.48150253702513107,
            0.18495290943120127,
            0.11687854412344786,
            0.36956521342372045,
            -0.8521839462138577,
            0.10672354168819158,
            -0.5179725430375306,
            0.567663076090651,
            0.8645325480019846,
            -0.3717738335209017,
            0.7123023886041382,
            0.1364247168497631,
            -0.22310583101168,
            -0.7095654567891531,
            -0.12353864914068383,
            -0.20170669257737656,
            0.04724817924854562,
            0.47996964819361876,
            -0.2495731427268507,
            0.8350439817130907,
            -0.050438625622971606,
            0.5121720834633451,
            -1.4296288202740106,
            -0.08924641349222256,
            -0.38726434552413064,
            -0.5548126376225136,
            -0.7590129441700815,
            0.5958419859698871,
            0.013346012023227535,
            -0.05251680232309063,
            1.0140347952132185,
            -0.6155045414344006,
            0.5153601987648879,
            -0.21946454239790214,
            0.8149527680892552,
            -0.4203532521230125,
            -0.6406188217516136,
            0.15716816259574307,
            -0.258162259819258,
            -0.16013914669687213,
            0.6182434086286197,
            -0.34085318053887464,
            0.011134631851649925,
            0.5797778126635303,
            0.026189262249250788,
            -1.6098966276902087
        ]
    ],
    "bias_index": 128,
    "lambda": 0.0001,
    "epochs": 20,
    "eta0": 0.1,
    "goal_column": "320_Class",
    "classes": [
        "1133_2",
        "1132_3",
        "1134_4",
        "1135_1"
    ],
    "num_classes": 4,
    "label_map": {
        "+1": "1133_2",
        "-1": "1132_3"
    },
    "feature_index": {
        "CAT::306_Sex::1086_1": 0,
        "CAT::306_Sex::1087_2": 1,
        "CAT::307_Age::1088_5": 2,
        "CAT::307_Age::1089_4": 3,
        "CAT::307_Age::1090_3": 4,
        "CAT::307_Age::1091_2": 5,
        "CAT::308_Height::1092_2": 6,
        "CAT::308_Height::1093_1": 7,
        "CAT::308_Height::1094_3": 8,
        "CAT::308_Height::1095_5": 9,
        "CAT::308_Height::1096_0": 10,
        "CAT::308_Height::1097_4": 11,
        "CAT::309_Overweight_Obese_Family::1098_2": 12,
        "CAT::309_Overweight_Obese_Family::1099_1": 13,
        "CAT::310_Consumption_of_Fast_Food::1100_2": 14,
        "CAT::310_Consumption_of_Fast_Food::1101_1": 15,
        "CAT::311_Frequency_of_Consuming_Vegetables::1102_3": 16,
        "CAT::311_Frequency_of_Consuming_Vegetables::1103_2": 17,
        "CAT::311_Frequency_of_Consuming_Vegetables::1104_1": 18,
        "CAT::312_Number_of_Main_Meals_Daily::1105_2": 19,
        "CAT::312_Number_of_Main_Meals_Daily::1106_3": 20,
        "CAT::312_Number_of_Main_Meals_Daily::1107_1": 21,
        "CAT::313_Food_Intake_Between_Meals::1108_4": 22,
        "CAT::313_Food_Intake_Between_Meals::1109_2": 23,
        "CAT::313_Food_Intake_Between_Meals::1110_1": 24,
        "CAT::313_Food_Intake_Between_Meals::1111_3": 25,
        "CAT::314_Smoking::1112_2": 26,
        "CAT::314_Smoking::1113_1": 27,
        "CAT::315_Liquid_Intake_Daily::1114_2": 28,
        "CAT::315_Liquid_Intake_Daily::1115_1": 29,
        "CAT::315_Liquid_Intake_Daily::1116_3": 30,
        "CAT::316_Calculation_of_Calorie_Intake::1117_2": 31,
        "CAT::316_Calculation_of_Calorie_Intake::1118_1": 32,
        "CAT::317_Physical_Excercise::1119_2": 33,
        "CAT::317_Physical_Excercise::1120_5": 34,
        "CAT::317_Physical_Excercise::1121_3": 35,
        "CAT::317_Physical_Excercise::1122_4": 36,
        "CAT::317_Physical_Excercise::1123_1": 37,
        "CAT::318_Schedule_Dedicated_to_Technology::1124_1": 38,
        "CAT::318_Schedule_Dedicated_to_Technology::1125_3": 39,
        "CAT::318_Schedule_Dedicated_to_Technology::1126_2": 40,
        "CAT::319_Type_of_Transportation_Used::1127_1": 41,
        "CAT::319_Type_of_Transportation_Used::1128_4": 42,
        "CAT::319_Type_of_Transportation_Used::1129_5": 43,
        "CAT::319_Type_of_Transportation_Used::1130_3": 44,
        "CAT::319_Type_of_Transportation_Used::1131_2": 45
    },
    "numeric_minmax": [],
    "kernel": "sigmoid",
    "kernel_meta": {
        "type": "sigmoid",
        "D": 128,
        "scale": 1.0,
        "coef0": 0.0,
        "seed": 3523628236
    }
}