{
    "type": "svm_sgd",
    "dim": 129,
    "weights": [
        [
            -0.952876744361502,
            0.2585423731200467,
            -0.13863100037200096,
            -2.635604123045645,
            -0.8025626247913787,
            -3.408968018082686,
            0.043918439603716206,
            -2.111774503265248,
            -1.572027297877728,
            -0.15739552461451145,
            0.1464770710287247,
            0.08627472010528005,
            0.07200247050579595,
            0.9630835568508359,
            -1.2389685119135891,
            -0.2696675315093113,
            -1.3363192611897587,
            1.6998878915712743,
            2.2023270051321515,
            -1.1901662689192947,
            -0.03200285244798364,
            0.4756676377861374,
            1.2917804853840567,
            0.16096660415977693,
            -1.1324990533805608,
            0.7563247629088532,
            0.09964872079489295,
            -0.6936109008432393,
            1.277978607698411,
            -1.2322603794422755,
            0.12418347556595176,
            0.8466583736224715,
            0.08607603273976086,
            -0.3893094817125185,
            -0.3337880903834383,
            -0.272053011681367,
            -0.16139097633124608,
            -0.662119677012428,
            0.30276651261975146,
            -0.422670819908492,
            -0.15727622861953783,
            -1.0996044721537954,
            -0.4223013942957003,
            -0.1297655655341354,
            1.0726693986355311,
            0.1615947903962967,
            1.6109107143133137,
            -3.2655473125266203,
            0.04375592365707084,
            0.5587046627937714,
            -0.7496830468706819,
            2.172334538961532,
            2.7587434814383305,
            -0.9243784255530508,
            0.05382428044184885,
            0.42329067358847217,
            0.3805916356863449,
            -0.5744730867877366,
            -1.0561256217801869,
            -0.1615874133344693,
            1.4085026293957053,
            1.2558846221584705,
            0.16125192156586607,
            0.3818821063727197,
            -0.1343404746417835,
            0.4237853971737917,
            0.03932131087290722,
            -2.7143735913891636,
            0.21013344222701105,
            -0.09806784440130951,
            0.24057595045106292,
            1.5672826725471232,
            0.6529253517769135,
            0.009850288538519056,
            -1.0054548591199173,
            1.2331855455314253,
            0.18191836329555633,
            -0.1505437055805125,
            1.7767013150890179,
            0.1608026382903232,
            -0.9727278452812798,
            0.13117959116266067,
            -0.35779170999892873,
            -2.979136071831913,
            -0.16073737851499145,
            0.4514131795547589,
            1.6246523568740145,
            -0.9682946131878604,
            -0.4171553265020701,
            1.3676400436447995,
            -0.251503490990686,
            0.0855589468281487,
            -0.36370655451396816,
            -1.3292924383345814,
            0.0554489644076557,
            -0.7361704799145,
            -1.610945111080901,
            -0.9902248637303598,
            0.5396994136922737,
            -0.6004012450732815,
            -0.0054563708078120094,
            0.8591677764709824,
            -3.05133586271272,
            -0.036058892474593505,
            2.686557825195181,
            0.6058263025743789,
            0.11722152288332771,
            -1.4497890179238584,
            -0.3118810752934865,
            0.1612902643669579,
            0.07464579071437143,
            0.7493404609397006,
            -0.2565184346014522,
            0.338186090227677,
            -0.18100713079650238,
            0.16207021939876323,
            -0.49916233187065395,
            -1.362163570544617,
            -0.16159325235459188,
            1.7770961483352137,
            -0.05024056160266871,
            -0.6360599539312007,
            1.6224757060145116,
            0.060015787120920754,
            -0.20407096659756013,
            -0.1379971709457172,
            0.17920435639429266,
            -0.5864172361211082,
            1.828153564899434
        ],
        [
            0.952876744361502,
            -0.2585423731200467,
            0.13863100037200096,
            2.635604123045645,
            0.8025626247913787,
            3.408968018082686,
            -0.043918439603716206,
            2.111774503265248,
            1.572027297877728,
            0.15739552461451145,
            -0.1464770710287247,
            -0.08627472010528005,
            -0.07200247050579595,
            -0.9630835568508359,
            1.2389685119135891,
            0.2696675315093113,
            1.3363192611897587,
            -1.6998878915712743,
            -2.2023270051321515,
            1.1901662689192947,
            0.03200285244798364,
            -0.4756676377861374,
            -1.2917804853840567,
            -0.16096660415977693,
            1.1324990533805608,
            -0.7563247629088532,
            -0.09964872079489295,
            0.6936109008432393,
            -1.277978607698411,
            1.2322603794422755,
            -0.12418347556595176,
            -0.8466583736224715,
            -0.08607603273976086,
            0.3893094817125185,
            0.3337880903834383,
            0.272053011681367,
            0.16139097633124608,
            0.662119677012428,
            -0.30276651261975146,
            0.422670819908492,
            0.15727622861953783,
            1.0996044721537954,
            0.4223013942957003,
            0.1297655655341354,
            -1.0726693986355311,
            -0.1615947903962967,
            -1.6109107143133137,
            3.2655473125266203,
            -0.04375592365707084,
            -0.5587046627937714,
            0.7496830468706819,
            -2.172334538961532,
            -2.7587434814383305,
            0.9243784255530508,
            -0.05382428044184885,
            -0.42329067358847217,
            -0.3805916356863449,
            0.5744730867877366,
            1.0561256217801869,
            0.1615874133344693,
            -1.4085026293957053,
            -1.2558846221584705,
            -0.16125192156586607,
            -0.3818821063727197,
            0.1343404746417835,
            -0.4237853971737917,
            -0.03932131087290722,
            2.7143735913891636,
            -0.21013344222701105,
            0.09806784440130951,
            -0.24057595045106292,
            -1.5672826725471232,
            -0.6529253517769135,
            -0.009850288538519056,
            1.0054548591199173,
            -1.2331855455314253,
            -0.18191836329555633,
            0.1505437055805125,
            -1.7767013150890179,
            -0.1608026382903232,
            0.9727278452812798,
            -0.13117959116266067,
            0.35779170999892873,
            2.979136071831913,
            0.16073737851499145,
            -0.4514131795547589,
            -1.6246523568740145,
            0.9682946131878604,
            0.4171553265020701,
            -1.3676400436447995,
            0.251503490990686,
            -0.0855589468281487,
            0.36370655451396816,
            1.3292924383345814,
            -0.0554489644076557,
            0.7361704799145,
            1.610945111080901,
            0.9902248637303598,
            -0.5396994136922737,
            0.6004012450732815,
            0.0054563708078120094,
            -0.8591677764709824,
            3.05133586271272,
            0.036058892474593505,
            -2.686557825195181,
            -0.6058263025743789,
            -0.11722152288332771,
            1.4497890179238584,
            0.3118810752934865,
            -0.1612902643669579,
            -0.07464579071437143,
            -0.7493404609397006,
            0.2565184346014522,
            -0.338186090227677,
            0.18100713079650238,
            -0.16207021939876323,
            0.49916233187065395,
            1.362163570544617,
            0.16159325235459188,
            -1.7770961483352137,
            0.05024056160266871,
            0.6360599539312007,
            -1.6224757060145116,
            -0.060015787120920754,
            0.20407096659756013,
            0.1379971709457172,
            -0.17920435639429266,
            0.5864172361211082,
            -1.828153564899434
        ]
    ],
    "bias_index": 128,
    "lambda": 0.0001,
    "epochs": 20,
    "eta0": 0.1,
    "goal_column": "230_binaryClass",
    "classes": [
        "809_P",
        "810_N"
    ],
    "num_classes": 2,
    "label_map": {
        "+1": "809_P",
        "-1": "810_N"
    },
    "feature_index": {
        "CAT::201_age::734_6": 0,
        "CAT::201_age::735_5": 1,
        "CAT::201_age::736_4": 2,
        "CAT::201_age::737_7": 3,
        "CAT::201_age::738_2": 4,
        "CAT::201_age::739_3": 5,
        "CAT::201_age::740_8": 6,
        "CAT::201_age::741_1": 7,
        "CAT::201_age::742_0": 8,
        "CAT::202_sex::743_M": 9,
        "CAT::202_sex::744_F": 10,
        "CAT::202_sex::745_?": 11,
        "CAT::203_on_thyroxine::746_f": 12,
        "CAT::203_on_thyroxine::747_t": 13,
        "CAT::204_query_on_thyroxine::748_f": 14,
        "CAT::204_query_on_thyroxine::749_t": 15,
        "CAT::205_on_antithyroid_medication::750_f": 16,
        "CAT::205_on_antithyroid_medication::751_t": 17,
        "CAT::206_sick::752_f": 18,
        "CAT::206_sick::753_t": 19,
        "CAT::207_pregnant::754_f": 20,
        "CAT::207_pregnant::755_t": 21,
        "CAT::208_thyroid_surgery::756_f": 22,
        "CAT::208_thyroid_surgery::757_t": 23,
        "CAT::209_I131_treatment::758_f": 24,
        "CAT::209_I131_treatment::759_t": 25,
        "CAT::210_query_hypothyroid::760_f": 26,
        "CAT::210_query_hypothyroid::761_t": 27,
        "CAT::211_query_hyperthyroid::762_f": 28,
        "CAT::211_query_hyperthyroid::763_t": 29,
        "CAT::212_lithium::764_f": 30,
        "CAT::212_lithium::765_t": 31,
        "CAT::213_goitre::766_f": 32,
        "CAT::213_goitre::767_t": 33,
        "CAT::214_tumor::768_f": 34,
        "CAT::214_tumor::769_t": 35,
        "CAT::215_hypopituitary::770_f": 36,
        "CAT::215_hypopituitary::771_t": 37,
        "CAT::216_psych::772_f": 38,
        "CAT::216_psych::773_t": 39,
        "CAT::217_TSH_measured::774_t": 40,
        "CAT::217_TSH_measured::775_f": 41,
        "CAT::218_TSH::776_2": 42,
        "CAT::218_TSH::777_0": 43,
        "CAT::218_TSH::778_3": 44,
        "CAT::218_TSH::779_4": 45,
        "CAT::219_T3_measured::780_t": 46,
        "CAT::219_T3_measured::781_f": 47,
        "CAT::220_T3::782_1": 48,
        "CAT::220_T3::783_0": 49,
        "CAT::220_T3::784_2": 50,
        "CAT::220_T3::785_3": 51,
        "CAT::221_TT4_measured::786_t": 52,
        "CAT::221_TT4_measured::787_f": 53,
        "CAT::222_TT4::788_2": 54,
        "CAT::222_TT4::789_3": 55,
        "CAT::222_TT4::790_0": 56,
        "CAT::222_TT4::791_1": 57,
        "CAT::223_T4U_measured::792_t": 58,
        "CAT::223_T4U_measured::793_f": 59,
        "CAT::224_T4U::794_2": 60,
        "CAT::224_T4U::795_0": 61,
        "CAT::225_FTI_measured::796_t": 62,
        "CAT::225_FTI_measured::797_f": 63,
        "CAT::226_FTI::798_2": 64,
        "CAT::226_FTI::799_1": 65,
        "CAT::226_FTI::800_0": 66,
        "CAT::226_FTI::801_3": 67,
        "CAT::227_TBG_measured::802_f": 68,
        "CAT::228_TBG::803_0": 69,
        "CAT::229_referral_source::804_other": 70,
        "CAT::229_referral_source::805_SVHC": 71,
        "CAT::229_referral_source::806_SVI": 72,
        "CAT::229_referral_source::807_STMW": 73,
        "CAT::229_referral_source::808_SVHD": 74
    },
    "numeric_minmax": [],
    "kernel": "sigmoid",
    "kernel_meta": {
        "type": "sigmoid",
        "D": 128,
        "scale": 1.0,
        "coef0": 0.0,
        "seed": 2620814147
    }
}