{
    "type": "svm_sgd",
    "dim": 129,
    "weights": [
        [
            -0.44438477017539546,
            1.425824655473818,
            0.6008176488679599,
            -0.45560283430908344,
            -0.07615338070098243,
            -0.17735536893983328,
            0.028016339449170438,
            0.20191989606231509,
            1.3694246480682548,
            -0.15866756930928025,
            -0.5631139823461229,
            0.32113001676415553,
            1.5853736135986645,
            -0.2719467345747682,
            0.4495465539634306,
            -0.2681884508495616,
            -0.4233571346490529,
            0.0826183381934975,
            0.01890730760449026,
            0.2780096914393899,
            -1.205480388081779,
            -0.7514753030806098,
            -0.941227855913113,
            -0.8344812457599533,
            0.2922859408527993,
            -0.6717690228540663,
            -1.042769886455741,
            0.14421628735609385,
            -0.9206126627724138,
            -1.2540380965811966,
            0.37093533421304725,
            -0.06770048026030202,
            0.29111658533262286,
            -0.4428738104910315,
            0.6220799393164915,
            0.2757784046743391,
            0.9763157151855395,
            0.2350057544490393,
            0.96472111955408,
            -0.04835847153946731,
            -1.516910420633938,
            1.0580485064500658,
            1.2603951691720678,
            -0.3561207642573117,
            0.01002115345226397,
            0.6335532264862274,
            0.6346320354423928,
            0.3104851658473232,
            -1.4185707981327258,
            1.0564252235688507,
            0.5213176596026622,
            -1.5909471630295102,
            0.5063757279909681,
            -0.5118301871288184,
            -0.06760846081930641,
            0.9792316501936588,
            -0.1426329219630584,
            0.8680138427465435,
            -0.43859259350358565,
            1.3155835712501471,
            0.016968217962222688,
            0.3654696379033619,
            -0.917337939136019,
            0.2996819072562866,
            1.8672311678906615,
            0.2818774349699693,
            -1.4234195353703987,
            -1.1843039571028395,
            1.085681590386595,
            1.4840156488218397,
            -1.0760783816756034,
            -0.6569208305871829,
            -1.0717166397506082,
            -1.080619263781347,
            -0.39292688179716884,
            -0.01849873710056167,
            0.5008206273844429,
            -0.40616083571286893,
            0.36682850380940635,
            0.12407158229469682,
            -0.05192904997650362,
            0.018974630622012316,
            0.621705530297756,
            0.6127641710601666,
            0.10262139580180128,
            0.043240006300686085,
            0.04228043361814287,
            0.3985147445346931,
            0.8309025946316311,
            -0.8802866123101276,
            -0.7064682184349815,
            0.07802546132902209,
            0.2654685520125838,
            0.1800491819844727,
            2.109078302104836,
            0.8904687855653823,
            0.62442356226736,
            -0.3191227238992704,
            0.19134209510964412,
            -0.7082024495176552,
            -0.12572920691651257,
            -1.0427358785230083,
            0.09643538506874393,
            0.28981006736267617,
            -0.5908384454721839,
            -0.5346024211918872,
            -1.2102988466338007,
            -0.19925277576203118,
            -0.3601918836278942,
            -0.050212986207187914,
            -0.27949934650273933,
            -1.1537851760007851,
            -1.0665941886383523,
            0.2769695746629401,
            0.8439219779216143,
            0.7680171873628542,
            -1.557744309868716,
            -1.1691794751653277,
            0.9763173011183515,
            -1.1229659030498513,
            0.47389980443904467,
            -0.2443171561843103,
            -0.8275056594097205,
            0.05706961431410595,
            0.36328406612290276,
            0.9108957142175056,
            0.46301070722184107,
            0.4423758108018109,
            1.5313935681470148
        ],
        [
            0.4342618857186826,
            -1.6595246800293684,
            -0.7360137560443331,
            0.3158270068639737,
            0.25702146088927985,
            -0.001998757459436271,
            0.08775877154968155,
            0.011708915322645673,
            -1.3654209526653234,
            0.03131138793376762,
            0.47468202665893466,
            -0.3342888455157743,
            -1.4652933704476112,
            0.43351659287040034,
            -0.2933494095781033,
            0.3955272520068325,
            0.42386451700978,
            -0.08537034529392495,
            0.1765786186183977,
            -0.3715686548718289,
            1.3456135050880471,
            1.0082544181114974,
            0.8908692064165893,
            0.5633673210760051,
            -0.43924967074127613,
            0.8953635672665956,
            1.1668683603216936,
            -0.10016120713283803,
            0.9514237093783796,
            1.452417196373246,
            -0.3012915395037034,
            0.015335964302140358,
            -0.34066088838757974,
            0.4157937137186874,
            -0.4870694865346646,
            -0.41147785682618365,
            -1.0122707588465556,
            -0.4493161340341386,
            -0.9543672873079145,
            0.09517581937714541,
            1.3396979128861854,
            -1.1867814742731047,
            -1.4549185733478514,
            0.18145945103267072,
            0.15038322032748602,
            -0.4427211223725708,
            -0.43491294637951333,
            -0.20330389486752098,
            1.306711019735488,
            -1.054575628355216,
            -0.3488225186653398,
            1.428344839462363,
            -0.44416430450275546,
            0.40981556165655564,
            0.24901851841834852,
            -0.8003909790089001,
            -0.042575191202030925,
            -0.8499285959532672,
            0.3635280452574261,
            -1.4869903131126492,
            -0.14296701772123158,
            -0.3777931200897134,
            0.794859087673424,
            -0.4124035717730166,
            -1.8084485069700311,
            -0.11253484545024584,
            1.6579900310815985,
            1.0810427847583013,
            -0.9103833035288849,
            -1.4360594939837947,
            0.8799829539838344,
            0.5566381724074668,
            1.207151235597185,
            1.1820580823747364,
            0.3689625503765183,
            -0.1303335880225884,
            -0.6874454878808987,
            0.5434813631993549,
            -0.48641261024920013,
            -0.07518177098244937,
            -0.09809100630651982,
            0.1837182511646016,
            -0.6361381768165525,
            -0.6284499745132244,
            -0.31514608090137297,
            -0.07203487497218462,
            0.2014919869140547,
            -0.25124825813014934,
            -0.8563082777646627,
            0.80852639842654,
            0.9013789690222703,
            -0.053144103717678255,
            -0.17090960384619933,
            -0.3305359054818235,
            -1.8706864209461969,
            -0.8741731640123466,
            -0.5298669901653732,
            0.3942468161964017,
            -0.14038079665083403,
            0.6623407362355994,
            0.014528356113474033,
            1.1809701498606506,
            -0.218683805809547,
            -0.5089142029049395,
            0.4571379465024676,
            0.6864893523064449,
            1.3624671249049283,
            0.3237705706962828,
            0.5547821919258034,
            -0.007429784874650497,
            0.1748448511012336,
            1.011589298839863,
            1.2253310633479353,
            -0.5151030668518345,
            -0.6815268350559278,
            -0.6261388056537304,
            1.5200471902506374,
            0.9593283280778923,
            -0.969315035101854,
            1.0825031292077187,
            -0.48009301394896203,
            -0.011678880793814577,
            0.912471267475314,
            0.03423523656677294,
            -0.35920136588184903,
            -0.78041809366932,
            -0.361096200531232,
            -0.643374308470449,
            -1.4356814701378295
        ],
        [
            0.13575198587585285,
            0.18377401584027198,
            0.07466987148808094,
            0.24770553586944127,
            -0.18832202062156586,
            0.00962555276147938,
            -0.10404642796228612,
            -0.11959056155176051,
            0.04348336154052709,
            0.16937967460104514,
            0.19214544500697298,
            -0.014198903425214328,
            -0.1919599430348226,
            -0.14320776415970354,
            -0.15962567782690099,
            -0.11915276385342814,
            -0.10848181244686195,
            0.08041913364966176,
            -0.1506340246341276,
            0.04483330181919832,
            -0.17844407653975117,
            -0.10177395466999317,
            0.052374174848443734,
            0.14973961985350745,
            0.2211382496956113,
            -0.23885248307508422,
            -0.18206783680063188,
            -0.18640184771986065,
            0.07101023245371342,
            -0.12946267423464178,
            -0.16271174090073418,
            0.11922483557020447,
            -0.06492883704770996,
            -0.006190100086687157,
            -0.13832920483925473,
            0.1477121845314952,
            0.05807074130644174,
            0.20433257645121783,
            0.008476813950316887,
            -0.022746673104475108,
            0.27677178836636146,
            0.205121267293797,
            0.12847046558975503,
            0.1453525227117719,
            -0.11802429199974838,
            -0.14538460581942375,
            -0.14491367516451645,
            -0.23067172961763074,
            0.17003223551365096,
            0.07301269074616831,
            -0.18512177742719832,
            0.18670837028145262,
            -0.048727848271290196,
            0.07295072026219865,
            -0.12069433503865512,
            -0.17521382972254604,
            0.09837270682374079,
            0.023496650126455628,
            0.11776877848529739,
            0.1506668750460102,
            0.19947081968780891,
            0.038148510623201626,
            0.24979544230579356,
            0.0088903000087351,
            -0.011111331273101982,
            -0.2346587908056841,
            -0.22632697621636913,
            0.1726249872796165,
            -0.24412778356545276,
            -0.1020509042081609,
            0.2191774025985792,
            0.2332568687871934,
            -0.09297717465317534,
            -0.17624807441954907,
            -0.006526065290914857,
            0.23657850642655195,
            0.18619425446701324,
            -0.18169582887830957,
            0.08883448806250926,
            -0.013292307837517793,
            0.06783142052076922,
            -0.11702640821560947,
            0.142001172637997,
            -0.12282446202067036,
            0.26681409371004355,
            0.05741444052089917,
            -0.16837405857358267,
            -0.1435103452221655,
            -0.1710046566035165,
            0.022433763283754706,
            -0.17087574015652626,
            0.11639332223327171,
            -0.02046266459521451,
            0.12114007409596862,
            -0.12425331877276585,
            0.04140202429080059,
            -0.011167790600965715,
            -0.10284770471240946,
            0.003183721102697836,
            0.0720390803025062,
            0.17243935605673827,
            -0.24881360079782816,
            0.15459212456758176,
            0.22080504363332762,
            0.19561430301450364,
            -0.18033715437355655,
            -0.2321131738615444,
            -0.22536051621997658,
            -0.19638498694105358,
            -0.01398239823086405,
            0.1581565095932638,
            0.1509488194744384,
            -0.1758086708223339,
            0.19124691370058036,
            -0.1401177223496789,
            0.07004760639626069,
            0.18994542931146755,
            0.15218174945879392,
            -0.08799001938287158,
            0.09682783979438361,
            0.11578678096598582,
            0.2989549187211355,
            -0.10520011167309813,
            -0.1305665610206852,
            0.17187478787361574,
            -0.15024243983961885,
            -0.13089937204323726,
            0.1968401517194451,
            -1.2442572741194522
        ]
    ],
    "bias_index": 128,
    "lambda": 0.0001,
    "epochs": 20,
    "eta0": 0.1,
    "goal_column": "280_classification",
    "classes": [
        "996_ckd",
        "998_notckd",
        "997_ckd\t"
    ],
    "num_classes": 3,
    "label_map": {
        "+1": "996_ckd",
        "-1": "998_notckd"
    },
    "feature_index": {
        "CAT::256_age::905_5": 0,
        "CAT::256_age::909_4": 1,
        "CAT::256_age::910_7": 2,
        "CAT::256_age::907_6": 3,
        "CAT::256_age::912_2": 4,
        "CAT::256_age::906_1": 5,
        "CAT::256_age::908_3": 6,
        "CAT::256_age::911_0": 7,
        "CAT::257_bp::914_2": 8,
        "CAT::257_bp::917_3": 9,
        "CAT::257_bp::915_1": 10,
        "CAT::257_bp::916_0": 11,
        "CAT::258_sg::918_2": 12,
        "CAT::259_al::923_0": 13,
        "CAT::259_al::922_3": 14,
        "CAT::259_al::924_n": 15,
        "CAT::259_al::921_2": 16,
        "CAT::259_al::919_1": 17,
        "CAT::259_al::920_4": 18,
        "CAT::259_al::925_5": 19,
        "CAT::260_su::926_0": 20,
        "CAT::260_su::928_4": 21,
        "CAT::260_su::930_n": 22,
        "CAT::260_su::929_1": 23,
        "CAT::260_su::931_2": 24,
        "CAT::260_su::927_3": 25,
        "CAT::260_su::932_5": 26,
        "CAT::261_rbc::934_normal": 27,
        "CAT::261_rbc::933_nan": 28,
        "CAT::261_rbc::935_abnormal": 29,
        "CAT::262_pc::936_normal": 30,
        "CAT::262_pc::937_abnormal": 31,
        "CAT::262_pc::938_nan": 32,
        "CAT::263_pcc::939_notpresent": 33,
        "CAT::263_pcc::940_present": 34,
        "CAT::263_pcc::941_nan": 35,
        "CAT::264_ba::942_notpresent": 36,
        "CAT::264_ba::943_present": 37,
        "CAT::264_ba::944_nan": 38,
        "CAT::265_bgr::945_2": 39,
        "CAT::265_bgr::947_3": 40,
        "CAT::265_bgr::948_1": 41,
        "CAT::265_bgr::946_0": 42,
        "CAT::266_bu::950_2": 43,
        "CAT::266_bu::949_3": 44,
        "CAT::266_bu::951_0": 45,
        "CAT::267_sc::953_3": 46,
        "CAT::267_sc::954_0": 47,
        "CAT::268_sod::957_2": 48,
        "CAT::268_sod::955_0": 49,
        "CAT::268_sod::958_3": 50,
        "CAT::268_sod::956_1": 51,
        "CAT::269_pot::961_2": 52,
        "CAT::269_pot::959_0": 53,
        "CAT::269_pot::962_3": 54,
        "CAT::269_pot::960_1": 55,
        "CAT::270_hemo::963_2": 56,
        "CAT::270_hemo::964_1": 57,
        "CAT::270_hemo::965_0": 58,
        "CAT::270_hemo::966_3": 59,
        "CAT::271_pcv::967_2": 60,
        "CAT::271_pcv::968_1": 61,
        "CAT::271_pcv::969_0": 62,
        "CAT::272_wc::970_2": 63,
        "CAT::272_wc::971_0": 64,
        "CAT::272_wc::973_1": 65,
        "CAT::272_wc::972_3": 66,
        "CAT::273_rc::974_2": 67,
        "CAT::273_rc::975_0": 68,
        "CAT::273_rc::976_1": 69,
        "CAT::273_rc::977_3": 70,
        "CAT::274_htn::979_no": 71,
        "CAT::274_htn::978_yes": 72,
        "CAT::274_htn::980_nan": 73,
        "CAT::275_dm::982_no": 74,
        "CAT::275_dm::981_yes": 75,
        "CAT::275_dm::983_nan": 76,
        "CAT::276_cad::984_no": 77,
        "CAT::276_cad::985_yes": 78,
        "CAT::276_cad::986_nan": 79,
        "CAT::277_appet::987_good": 80,
        "CAT::277_appet::989_nan": 81,
        "CAT::277_appet::988_poor": 82,
        "CAT::278_pe::990_no": 83,
        "CAT::278_pe::992_nan": 84,
        "CAT::278_pe::991_yes": 85,
        "CAT::279_ane::993_no": 86,
        "CAT::279_ane::995_nan": 87,
        "CAT::279_ane::994_yes": 88
    },
    "numeric_minmax": [],
    "kernel": "rbf",
    "kernel_meta": {
        "type": "rbf",
        "D": 128,
        "gamma": 0.25,
        "seed": 3001289614
    }
}