{
    "type": "svm_sgd",
    "dim": 129,
    "weights": [
        [
            -3.7495682742203527,
            -1.7479013061689193,
            0.8059114130326396,
            0.8930891770523776,
            0.24457225945454567,
            0.3487624079221898,
            -0.007013735689605432,
            -2.3744489790440984,
            -0.9164549779950492,
            -0.08751714434791227,
            -2.190752336201662,
            -0.3209462872123422,
            -1.17102274747743,
            -0.8610711178736662,
            2.2707857197173307,
            0.613876187951543,
            0.3698187199205771,
            0.10703733810464318,
            -0.21164369398960764,
            -1.8206582156528366,
            1.330478824709765,
            3.1397003670175625,
            1.6834263778687988,
            0.2639214995672638,
            0.6660268969334118,
            0.6417928594908558,
            -0.153881534477327,
            0.2424638424190395,
            1.3011173566462269,
            -0.5030860705148711,
            1.4567920738616753,
            0.5790567000648169,
            -0.4724150391187701,
            0.22741938639522336,
            1.7565203402926706,
            0.5771855342192264,
            1.7971847773301102,
            -2.113319245906163,
            0.17602176227894706,
            -0.8128591898066098,
            1.7864569692719625,
            -1.9402348083041479,
            0.1248132950201715,
            3.8061414932277238,
            0.22437038740004697,
            0.08846546130741911,
            -0.2825077896909093,
            0.39552459337019036,
            -0.05609431922857884,
            -0.6820530714362664,
            0.06357635956903206,
            -0.7911031483220152,
            0.9015138087254083,
            0.07220133705641743,
            -1.019037929067382,
            -0.18467861618594522,
            -1.1642931507948329,
            -1.2396757939815413,
            -1.761758107661683,
            -0.10457796190715139,
            0.7446012893993351,
            0.2531388408257512,
            2.15538069901777,
            0.632869377655451,
            0.1395364159566108,
            -2.6318562848695497,
            0.917013405594293,
            0.5629650794041188,
            0.6690821869590259,
            2.1480158708662467,
            0.6400264838966165,
            -1.135773153907729,
            1.2696781943108184,
            -0.008040700258303555,
            1.064952352334727,
            -0.499090067115601,
            -0.9189071230651682,
            -0.6099825910989461,
            0.5409717469095928,
            1.8010186902851115,
            -0.6828670358624477,
            -0.710286108246954,
            -1.0656077630957794,
            0.4561276154058246,
            2.3818750381817244,
            0.16468729679020738,
            1.8331015186830366,
            -0.7230794553883984,
            1.0821152014794497,
            0.941988754210563,
            1.1670166643528783,
            0.3293567775620338,
            0.6121796557921493,
            -1.3505438594925467,
            -1.2571174843708033,
            -0.37333544693917897,
            0.46321141383530906,
            1.327453583793418,
            1.2906416355341817,
            -0.8714299973534723,
            0.35003653907894877,
            2.7916129686997464,
            1.3563300049782256,
            2.685422468128577,
            -0.26401126159212734,
            0.05169807238366899,
            0.6434708023282151,
            0.9080074363231486,
            -0.045524810999519154,
            0.9274820349067102,
            -0.9247243028538239,
            0.47439734649596693,
            1.5247643631704304,
            -1.3484491192341863,
            -0.14053276402234063,
            2.9400636811744203,
            0.49407696330979706,
            -0.26390603319536077,
            -1.390337591336023,
            -0.23972976532955,
            -0.8497059066715095,
            -1.4373476153077986,
            3.6000472342508516,
            0.8250117507243134,
            0.2772794546387091,
            -1.433124380099999,
            0.042394500277411824,
            0.3010035058223779,
            -0.1694628029147634
        ],
        [
            2.530602172501978,
            1.3387444016680752,
            0.3255601384039554,
            -2.41477700479163,
            1.1755250845960823,
            1.4084117141549737,
            -0.1701239626751194,
            0.25085262428578625,
            0.08055016047087354,
            -0.12934552298349286,
            0.8874591129828685,
            -1.0848909679990912,
            1.581481100299813,
            -0.9755159814808319,
            -1.0462791695693583,
            1.5923001656079823,
            -0.9369345259140296,
            -0.3539370635159184,
            -0.327144676728065,
            1.2055899012589335,
            -1.1005839657997132,
            -0.9407968486807354,
            0.10664860563291897,
            -2.01451106506981,
            0.11876306966120954,
            -0.5806435859755953,
            -0.6190112074931126,
            0.9408656484237142,
            -2.1483446338414454,
            0.2657689063399522,
            -0.5545744797835809,
            1.0669289408389027,
            0.8470778050090945,
            -0.6985062517499278,
            -0.32794428789964375,
            -0.6379708715606847,
            -1.9497565750696593,
            0.41053912920036506,
            -0.23899955767607683,
            0.8027060147573821,
            -1.7599819750875576,
            0.9019521754638555,
            1.1715316944851928,
            -2.479557607613525,
            -0.872009080655262,
            -1.9311526315669871,
            1.426426505889718,
            -0.3882846146160254,
            1.0846259252354773,
            0.9229524586104443,
            -0.2543473156093248,
            1.5864636602118605,
            -1.9120694350974747,
            0.23091434634396876,
            0.2667998501586182,
            -1.1141714214970293,
            -0.9255209308899633,
            0.30312715018282665,
            0.7398864201540196,
            -0.3671797927527851,
            -1.414074551533538,
            1.046139541831042,
            -0.811868897199971,
            -0.7141006330058414,
            -1.3076900888072551,
            0.7256612715535334,
            0.6284046791621329,
            -1.3895392958073698,
            2.244105880099744,
            1.5905234777836978,
            1.5021381746928104,
            0.13099196122787596,
            0.6585271191152587,
            0.45568195610237944,
            -0.014927395100161254,
            1.444333663440818,
            0.9922320356549534,
            0.18736553208682993,
            0.24608649122909385,
            -0.5312118450873481,
            1.1810473043863075,
            -0.7627545692800073,
            0.303248289605827,
            -1.2453451172074328,
            -1.1361252888381652,
            0.7030900112053328,
            -1.8928865975445526,
            0.9775674585218489,
            -2.062263101466708,
            0.1398463303629924,
            0.22274456106519264,
            0.8435885488190942,
            0.43966685826694807,
            2.3918500494448676,
            -0.016122387930919604,
            -0.025666473766358135,
            -0.9916893370299502,
            -1.4568573516310788,
            -0.009574812716627468,
            2.08341563572546,
            0.9614838137424669,
            -2.3474451792352315,
            -1.2009176575207015,
            -2.3284764255794896,
            -2.0678314168607583,
            2.787201177000267,
            0.26678172525287613,
            0.06412375615344491,
            1.6294143146568396,
            0.7363069497033857,
            0.20511798765672007,
            -0.3448866214716536,
            0.6777187345006557,
            1.605252386055253,
            0.1418650647234754,
            -3.1843513642445673,
            -0.10325661149675626,
            0.1833407672203677,
            1.3439625076955526,
            -0.04888055391549379,
            0.2595530394352323,
            1.242413243639388,
            -1.9264376405026151,
            0.21218474807764737,
            -0.6892349028400154,
            0.9743218433006057,
            -0.028185026015748495,
            -0.453905675312567,
            -1.6946280291476108
        ],
        [
            1.2689157198273064,
            0.9792150496440079,
            -1.3399779890322407,
            0.6808697721178485,
            -0.6439792106826743,
            -2.4244438727595665,
            0.874724997552279,
            1.7823838076858571,
            0.4948095313356843,
            -0.18738658968400712,
            0.6771824661167001,
            2.9030475302599728,
            -0.2843743523454528,
            0.9775347120816387,
            -1.1318198154538488,
            -1.1205301892055721,
            1.5183134003536596,
            0.8065631913377542,
            1.0755442077098187,
            0.7995790705960301,
            -0.5378549019436284,
            -1.9971236165583792,
            -0.7595868767026386,
            1.1605094216943832,
            -0.3737020744586535,
            0.35999652248985087,
            1.6454549532655776,
            -0.7792056890453551,
            0.3505207379494134,
            -0.18703981055139116,
            -0.989030635978211,
            -1.3177426694959282,
            0.35776639004785027,
            -0.28214504624958103,
            -0.7717835832636447,
            0.11072030682366615,
            1.0591785354892695,
            0.3935459061627681,
            -0.15598099815142397,
            -0.6518370628744548,
            -0.5065380142982404,
            1.0426405286608293,
            -0.19335139245667132,
            0.12312509129914448,
            0.31522446495816847,
            1.1050798381999096,
            -0.6243739141293096,
            -0.1544952027900715,
            -1.1310973813340954,
            0.0540671167421196,
            -0.42918596405528764,
            0.09364701658345881,
            0.38649544166943656,
            -0.13796244396583876,
            -0.2608718533764639,
            1.2231191628538387,
            1.8172449319040653,
            1.7292528550158695,
            0.8876881277290413,
            0.4175200891036219,
            0.30120875634357075,
            -1.8830872358773016,
            -1.84019301910202,
            0.6955710241123221,
            1.1842978157289172,
            2.5158443382303073,
            -0.07616819708053664,
            0.1265572050342893,
            -3.1333386328677824,
            -2.486554089743969,
            -2.099578779037938,
            0.4650793709571848,
            -2.1095596185587158,
            -0.3578998245421072,
            -0.17727160111703907,
            -0.6570304340727787,
            -0.33732851575655043,
            1.1441834169934326,
            -0.3319295708771113,
            -1.1793624107578051,
            -0.32882808016435844,
            1.2306361824133167,
            0.6486973423499538,
            -0.04993183383769446,
            -1.3727698131198167,
            -0.7217058893651729,
            1.600854863372056,
            -0.4270147228069823,
            1.1200043105398227,
            -0.10157102717988516,
            0.06927141748177906,
            -0.8663651420676585,
            0.4681073699560932,
            1.0825137158807054,
            1.6900293581230366,
            0.7705641445141671,
            -0.4633026065985727,
            0.0965146574449086,
            -1.1068409823691145,
            -1.842064500478957,
            -1.0127817087118305,
            -1.7787107979763892,
            0.7338744402204809,
            -0.8716042453789009,
            2.7067181307087873,
            -1.1011502895279375,
            -0.2960256078568969,
            -1.3589582871932588,
            -1.0156048276778296,
            -0.5877802141098601,
            0.914635858501009,
            0.35807290754538595,
            -1.44431281786123,
            0.3051586860415182,
            0.9090152565937749,
            0.5375841985007936,
            -0.20916430065829683,
            0.18110114750029738,
            0.817794275264308,
            -0.24179991778465623,
            1.0057050714773579,
            -0.9845034069552872,
            -1.3329720561903802,
            0.04940788121825755,
            -0.5569721132521805,
            0.4047542285591841,
            0.05673862280554552,
            0.13996269990934368,
            -0.9320454160311913
        ],
        [
            0.3680111549627025,
            -0.753057100837194,
            0.6113422545540205,
            1.1819148058747642,
            -0.513567691403438,
            0.306771052511298,
            0.14922665981050726,
            0.5929363275845563,
            0.28107806859819745,
            -0.5598380181065267,
            -0.10454339389131313,
            -0.9143455441550302,
            -0.20613041633690102,
            0.12343834464998509,
            1.1764800377525988,
            -1.049248358211149,
            -0.7309714431961739,
            -0.646089911102889,
            -0.15623679363888587,
            -0.5320572398047219,
            0.7758874638699045,
            -0.4394239847631842,
            -0.38930353672676665,
            0.5941266493589292,
            -0.5806551175451278,
            -0.43442306260008023,
            -0.9482315461534183,
            0.2414424158144705,
            -0.344797291956834,
            0.11653630198511458,
            0.2192189567466606,
            0.2452163043400628,
            -1.0508425083366713,
            0.43575573952247554,
            -0.593888425490124,
            0.4857784982663645,
            0.333444623828248,
            0.8358650171321134,
            -0.4674429235176054,
            0.3809546539154548,
            0.6074526039561726,
            0.3976456566370733,
            -0.8731569331024395,
            -1.4079533802964752,
            -0.16957798036480595,
            0.789073396413098,
            -1.3268159243187203,
            -0.1070181018227786,
            -0.5763903186820899,
            0.28646683617834606,
            0.1072133542944089,
            -0.5415465126243115,
            1.0665975630437414,
            0.5551787792645109,
            0.44116759866066235,
            -0.3511209705750288,
            -0.04837677443899665,
            -0.6577617202090351,
            -0.030786363325660555,
            0.6783222287061696,
            -0.01897140882034751,
            -0.3725814977360141,
            -0.07761560289234258,
            -0.7196730548999213,
            0.6276896195655838,
            -0.4154616135709149,
            -1.4377328664531925,
            0.524383816310065,
            0.04230795205310131,
            -0.42843500931353234,
            -0.037736178922340186,
            0.2890339580392712,
            0.358234067345637,
            -0.6711714403435203,
            -0.22131086586217658,
            -0.5982474466474964,
            1.5556570726502796,
            -0.7199098011970331,
            -0.030700060784147398,
            1.02455537306321,
            0.22546529132782733,
            0.9150884320672343,
            1.0585362787864623,
            0.6877194266507474,
            0.5219473818645128,
            0.18367759001070977,
            -1.2130925890540771,
            0.45208516685352207,
            0.46342358882986695,
            -0.4327787018151795,
            -0.6249614819436252,
            -0.7520448283303058,
            -0.9901945692239179,
            -1.6688700372655454,
            0.11411663712897131,
            -0.3142637115646238,
            0.22468973756768273,
            0.9058106262276003,
            0.24824930057632627,
            -0.008822096196746083,
            -0.17086897592854516,
            0.529811696897936,
            -0.5726917788669137,
            1.4816428657587994,
            0.48458327540848956,
            -0.9663631395370581,
            -0.4310176637387317,
            0.3227506292509905,
            -0.004653883465870944,
            0.11211335100734825,
            0.36028676535479864,
            0.32525194569989535,
            0.12705728738133856,
            -0.36553169835302557,
            -0.4577726610049824,
            -0.5517805710363665,
            0.4742302726823313,
            -0.9659124927622489,
            -0.3763035194569594,
            -0.004238826532136582,
            -0.2444490836629573,
            0.6663932786125079,
            -0.2133259336445942,
            -0.8454895471460248,
            0.5677407992431642,
            -0.5647213688738562,
            0.27935423470518594,
            -0.6082659064820618,
            -1.9488222335197383
        ]
    ],
    "bias_index": 128,
    "lambda": 0.0001,
    "epochs": 20,
    "eta0": 0.1,
    "goal_column": "320_Class",
    "classes": [
        "1133_2",
        "1132_3",
        "1134_4",
        "1135_1"
    ],
    "num_classes": 4,
    "label_map": {
        "+1": "1133_2",
        "-1": "1132_3"
    },
    "feature_index": {
        "CAT::306_Sex::1086_1": 0,
        "CAT::306_Sex::1087_2": 1,
        "CAT::307_Age::1088_5": 2,
        "CAT::307_Age::1089_4": 3,
        "CAT::307_Age::1090_3": 4,
        "CAT::307_Age::1091_2": 5,
        "CAT::308_Height::1092_2": 6,
        "CAT::308_Height::1093_1": 7,
        "CAT::308_Height::1094_3": 8,
        "CAT::308_Height::1095_5": 9,
        "CAT::308_Height::1096_0": 10,
        "CAT::308_Height::1097_4": 11,
        "CAT::309_Overweight_Obese_Family::1098_2": 12,
        "CAT::309_Overweight_Obese_Family::1099_1": 13,
        "CAT::310_Consumption_of_Fast_Food::1100_2": 14,
        "CAT::310_Consumption_of_Fast_Food::1101_1": 15,
        "CAT::311_Frequency_of_Consuming_Vegetables::1102_3": 16,
        "CAT::311_Frequency_of_Consuming_Vegetables::1103_2": 17,
        "CAT::311_Frequency_of_Consuming_Vegetables::1104_1": 18,
        "CAT::312_Number_of_Main_Meals_Daily::1105_2": 19,
        "CAT::312_Number_of_Main_Meals_Daily::1106_3": 20,
        "CAT::312_Number_of_Main_Meals_Daily::1107_1": 21,
        "CAT::313_Food_Intake_Between_Meals::1108_4": 22,
        "CAT::313_Food_Intake_Between_Meals::1109_2": 23,
        "CAT::313_Food_Intake_Between_Meals::1110_1": 24,
        "CAT::313_Food_Intake_Between_Meals::1111_3": 25,
        "CAT::314_Smoking::1112_2": 26,
        "CAT::314_Smoking::1113_1": 27,
        "CAT::315_Liquid_Intake_Daily::1114_2": 28,
        "CAT::315_Liquid_Intake_Daily::1115_1": 29,
        "CAT::315_Liquid_Intake_Daily::1116_3": 30,
        "CAT::316_Calculation_of_Calorie_Intake::1117_2": 31,
        "CAT::316_Calculation_of_Calorie_Intake::1118_1": 32,
        "CAT::317_Physical_Excercise::1119_2": 33,
        "CAT::317_Physical_Excercise::1120_5": 34,
        "CAT::317_Physical_Excercise::1121_3": 35,
        "CAT::317_Physical_Excercise::1122_4": 36,
        "CAT::317_Physical_Excercise::1123_1": 37,
        "CAT::318_Schedule_Dedicated_to_Technology::1124_1": 38,
        "CAT::318_Schedule_Dedicated_to_Technology::1125_3": 39,
        "CAT::318_Schedule_Dedicated_to_Technology::1126_2": 40,
        "CAT::319_Type_of_Transportation_Used::1127_1": 41,
        "CAT::319_Type_of_Transportation_Used::1128_4": 42,
        "CAT::319_Type_of_Transportation_Used::1129_5": 43,
        "CAT::319_Type_of_Transportation_Used::1130_3": 44,
        "CAT::319_Type_of_Transportation_Used::1131_2": 45
    },
    "numeric_minmax": [],
    "kernel": "rbf",
    "kernel_meta": {
        "type": "rbf",
        "D": 128,
        "gamma": 0.25,
        "seed": 3523638781
    }
}